[[ 2.53026927 -0.1968927   0.95974309  3.4810478   2.73580919 -2.95557404 0.90156696]
[-1.27475437 -1.17582482 -0.1557902  -0.72219813  1.91615124  0.50721257 -0.73923345]
[-0.10513992 -0.32492891  1.99393077 -1.41298024 -0.37198982 -2.71200616 -6.10163815]
[ 0.30995339  0.73221914 -2.48156011  3.53864539 -3.90786395 -0.90973707 -1.3726944 ]]
[[ 2.06159457  1.933253   -0.69281089 -0.2422982  -2.77341459 -4.96185842 -1.69100707]
[-0.69166991  1.45431467  1.4017052  -1.77310289 -1.60215465 -3.09741453 -3.83457137]
[-4.41185792  2.90234324 -2.0188931  -1.87634432 -3.50579881  0.55498297 -4.2285165 ]
[-1.42738649 -2.79322588 -0.22732654 -2.02106425 -3.36047305 -1.05642537 -0.14136294]
[-0.86100432 -0.38657103 -2.26450577 -1.72759296 -2.34813779 -1.71869788 -2.63374359]
[-4.45420636 -0.6479155  -1.80482929 -4.25978503 -0.07331854 -2.81473071 -0.89386908]
[ 0.44980228 -0.75437501  1.27289635 -3.46670074 -0.19041399 -2.37019922 -2.73110157]]
[[ 0.16875762 -0.95551666]
[ 0.6544231  -0.98715209]
[ 0.33481353 -0.43916451]
[ 0.50429898  0.89046616]
[-0.49557045  0.14539141]
[ 0.2262419   0.10234577]
[-0.52587878  0.87754007]]
[[ 0.00326059 -0.00100269 -0.01166814 -0.00555057 -0.00884737 -0.01567643 -0.0043978 ]]
[[ 1.43392349e-03  1.04849739e-03  1.87580725e-03  1.19465376e-03 -5.76544741e-04 -5.55350719e-05  7.98855207e-04]]
[[ 0.0033427 -0.0033427]]
